<?xml version="1.0"?>
<opencv_storage>
<cascade>
  <stageType>BOOST</stageType>
  <featureType>HAAR</featureType>
  <height>20</height>
  <width>20</width>
  <stageParams>
    <boostType>GAB</boostType>
    <minHitRate>9.9500000476837158e-01</minHitRate>
    <maxFalseAlarm>5.0000000000000000e-01</maxFalseAlarm>
    <weightTrimRate>9.4999999999999996e-01</weightTrimRate>
    <maxDepth>1</maxDepth>
    <maxWeakCount>100</maxWeakCount></stageParams>
  <featureParams>
    <maxCatCount>0</maxCatCount>
    <featSize>1</featSize>
    <mode>BASIC</mode></featureParams>
  <stageNum>9</stageNum>
  <stages>
    <!-- stage 0 -->
    <_>
      <maxWeakCount>2</maxWeakCount>
      <stageThreshold>-1.9992925226688385e-01</stageThreshold>
      <weakClassifiers>
        <_>
          <internalNodes>
            0 -1 2 2.0308151841163635e-02</internalNodes>
          <leafValues>
            -8.6489748954772949e-01 8.6424374580383301e-01</leafValues></_>
        <_>
          <internalNodes>
            0 -1 11 -1.0813698172569275e-02</internalNodes>
          <leafValues>
            6.6496819257736206e-01 -8.9286363124847412e-01</leafValues></_></weakClassifiers></_>
    <!-- stage 1 -->
    <_>
      <maxWeakCount>4</maxWeakCount>
      <stageThreshold>-1.5478674173355103e+00</stageThreshold>
      <weakClassifiers>
        <_>
          <internalNodes>
            0 -1 39 -2.0717741921544075e-02</internalNodes>
          <leafValues>
            7.3947894573211670e-01 -8.1818181276321411e-01</leafValues></_>
        <_>
          <internalNodes>
            0 -1 24 2.7272854000329971e-02</internalNodes>
          <leafValues>
            -6.6733485460281372e-01 6.8268817663192749e-01</leafValues></_>
        <_>
          <internalNodes>
            0 -1 13 1.5973396599292755e-02</internalNodes>
          <leafValues>
            -6.0874152183532715e-01 6.9157814979553223e-01</leafValues></_>
        <_>
          <internalNodes>
            0 -1 10 1.8033443484455347e-03</internalNodes>
          <leafValues>
            -8.0363231897354126e-01 4.7580572962760925e-01</leafValues></_></weakClassifiers></_>
    <!-- stage 2 -->
    <_>
      <maxWeakCount>4</maxWeakCount>
      <stageThreshold>-2.9020035266876221e-01</stageThreshold>
      <weakClassifiers>
        <_>
          <internalNodes>
            0 -1 7 3.6574527621269226e-02</internalNodes>
          <leafValues>
            -5.5214053392410278e-01 7.8423702716827393e-01</leafValues></_>
        <_>
          <internalNodes>
            0 -1 45 1.0807935905177146e-04</internalNodes>
          <leafValues>
            -8.7805128097534180e-01 4.8138016462326050e-01</leafValues></_>
        <_>
          <internalNodes>
            0 -1 0 3.1634178757667542e-01</internalNodes>
          <leafValues>
            -5.6418347358703613e-01 6.6060435771942139e-01</leafValues></_>
        <_>
          <internalNodes>
            0 -1 40 -1.2490114022511989e-04</internalNodes>
          <leafValues>
            3.7954622507095337e-01 -8.5699045658111572e-01</leafValues></_></weakClassifiers></_>
    <!-- stage 3 -->
    <_>
      <maxWeakCount>6</maxWeakCount>
      <stageThreshold>-8.6667251586914062e-01</stageThreshold>
      <weakClassifiers>
        <_>
          <internalNodes>
            0 -1 6 2.0124480128288269e-02</internalNodes>
          <leafValues>
            -8.6692756414413452e-01 6.1352217197418213e-01</leafValues></_>
        <_>
          <internalNodes>
            0 -1 28 9.1220885515213013e-03</internalNodes>
          <leafValues>
            -8.5629045963287354e-01 4.1165289282798767e-01</leafValues></_>
        <_>
          <internalNodes>
            0 -1 12 -6.1953026801347733e-02</internalNodes>
          <leafValues>
            6.4090532064437866e-01 -5.6572562456130981e-01</leafValues></_>
        <_>
          <internalNodes>
            0 -1 23 1.9082091748714447e-02</internalNodes>
          <leafValues>
            -4.4553697109222412e-01 6.9701385498046875e-01</leafValues></_>
        <_>
          <internalNodes>
            0 -1 34 -2.1914433455094695e-04</internalNodes>
          <leafValues>
            3.2655769586563110e-01 -9.0467536449432373e-01</leafValues></_>
        <_>
          <internalNodes>
            0 -1 14 3.0218824744224548e-02</internalNodes>
          <leafValues>
            2.7330705523490906e-01 -8.8361436128616333e-01</leafValues></_></weakClassifiers></_>
    <!-- stage 4 -->
    <_>
      <maxWeakCount>5</maxWeakCount>
      <stageThreshold>-9.8207682371139526e-01</stageThreshold>
      <weakClassifiers>
        <_>
          <internalNodes>
            0 -1 18 -1.0223521385341883e-03</internalNodes>
          <leafValues>
            5.9457015991210938e-01 -8.4489798545837402e-01</leafValues></_>
        <_>
          <internalNodes>
            0 -1 22 1.9693709909915924e-02</internalNodes>
          <leafValues>
            -5.4293519258499146e-01 6.2361252307891846e-01</leafValues></_>
        <_>
          <internalNodes>
            0 -1 3 9.2012770473957062e-03</internalNodes>
          <leafValues>
            -6.2978744506835938e-01 4.5415252447128296e-01</leafValues></_>
        <_>
          <internalNodes>
            0 -1 46 -4.0266867727041245e-03</internalNodes>
          <leafValues>
            4.6269318461418152e-01 -6.4576274156570435e-01</leafValues></_>
        <_>
          <internalNodes>
            0 -1 30 8.0144708044826984e-04</internalNodes>
          <leafValues>
            -8.4210157394409180e-01 2.8208860754966736e-01</leafValues></_></weakClassifiers></_>
    <!-- stage 5 -->
    <_>
      <maxWeakCount>6</maxWeakCount>
      <stageThreshold>-9.8385447263717651e-01</stageThreshold>
      <weakClassifiers>
        <_>
          <internalNodes>
            0 -1 1 2.7337130904197693e-01</internalNodes>
          <leafValues>
            -5.0458717346191406e-01 6.6339701414108276e-01</leafValues></_>
        <_>
          <internalNodes>
            0 -1 43 1.1459526140242815e-03</internalNodes>
          <leafValues>
            -7.5731003284454346e-01 3.9607238769531250e-01</leafValues></_>
        <_>
          <internalNodes>
            0 -1 17 1.5491910744458437e-04</internalNodes>
          <leafValues>
            -8.0008852481842041e-01 2.9327225685119629e-01</leafValues></_>
        <_>
          <internalNodes>
            0 -1 21 1.3787834905087948e-02</internalNodes>
          <leafValues>
            -4.9878460168838501e-01 4.5635691285133362e-01</leafValues></_>
        <_>
          <internalNodes>
            0 -1 26 -9.7215088317170739e-05</internalNodes>
          <leafValues>
            -9.2745137214660645e-01 2.4791097640991211e-01</leafValues></_>
        <_>
          <internalNodes>
            0 -1 42 6.6114170476794243e-04</internalNodes>
          <leafValues>
            -8.7329560518264771e-01 2.3564404249191284e-01</leafValues></_></weakClassifiers></_>
    <!-- stage 6 -->
    <_>
      <maxWeakCount>6</maxWeakCount>
      <stageThreshold>-8.9627128839492798e-01</stageThreshold>
      <weakClassifiers>
        <_>
          <internalNodes>
            0 -1 29 -1.9426047219894826e-04</internalNodes>
          <leafValues>
            5.4751527309417725e-01 -8.7684726715087891e-01</leafValues></_>
        <_>
          <internalNodes>
            0 -1 8 -4.3532988056540489e-03</internalNodes>
          <leafValues>
            4.2121693491935730e-01 -6.5499585866928101e-01</leafValues></_>
        <_>
          <internalNodes>
            0 -1 25 1.5465565957129002e-03</internalNodes>
          <leafValues>
            -8.1002491712570190e-01 2.8464564681053162e-01</leafValues></_>
        <_>
          <internalNodes>
            0 -1 35 3.9671747945249081e-03</internalNodes>
          <leafValues>
            -6.1061340570449829e-01 3.2063022255897522e-01</leafValues></_>
        <_>
          <internalNodes>
            0 -1 47 -2.8949626721441746e-03</internalNodes>
          <leafValues>
            3.9585539698600769e-01 -5.0816452503204346e-01</leafValues></_>
        <_>
          <internalNodes>
            0 -1 16 5.8057587593793869e-03</internalNodes>
          <leafValues>
            2.3268069326877594e-01 -8.5867834091186523e-01</leafValues></_></weakClassifiers></_>
    <!-- stage 7 -->
    <_>
      <maxWeakCount>8</maxWeakCount>
      <stageThreshold>-1.2512863874435425e+00</stageThreshold>
      <weakClassifiers>
        <_>
          <internalNodes>
            0 -1 19 -2.6257736608386040e-03</internalNodes>
          <leafValues>
            -5.5202823877334595e-01 5.6868261098861694e-01</leafValues></_>
        <_>
          <internalNodes>
            0 -1 9 -1.6767068300396204e-03</internalNodes>
          <leafValues>
            5.1258075237274170e-01 -4.1512247920036316e-01</leafValues></_>
        <_>
          <internalNodes>
            0 -1 33 -2.2512400755658746e-04</internalNodes>
          <leafValues>
            2.2583566606044769e-01 -9.3387579917907715e-01</leafValues></_>
        <_>
          <internalNodes>
            0 -1 27 2.2135090082883835e-02</internalNodes>
          <leafValues>
            -7.4068629741668701e-01 2.3901142179965973e-01</leafValues></_>
        <_>
          <internalNodes>
            0 -1 5 4.5757954940199852e-03</internalNodes>
          <leafValues>
            -8.5944110155105591e-01 2.0620749890804291e-01</leafValues></_>
        <_>
          <internalNodes>
            0 -1 32 -3.7245961721055210e-05</internalNodes>
          <leafValues>
            1.3108839094638824e-01 -9.7369182109832764e-01</leafValues></_>
        <_>
          <internalNodes>
            0 -1 23 2.5319812819361687e-02</internalNodes>
          <leafValues>
            -3.6191019415855408e-01 5.2020800113677979e-01</leafValues></_>
        <_>
          <internalNodes>
            0 -1 37 8.0535042798146605e-05</internalNodes>
          <leafValues>
            -7.3213517665863037e-01 2.5532925128936768e-01</leafValues></_></weakClassifiers></_>
    <!-- stage 8 -->
    <_>
      <maxWeakCount>8</maxWeakCount>
      <stageThreshold>-1.0347287654876709e+00</stageThreshold>
      <weakClassifiers>
        <_>
          <internalNodes>
            0 -1 15 5.4788595298305154e-04</internalNodes>
          <leafValues>
            -8.0628269910812378e-01 5.2113890647888184e-01</leafValues></_>
        <_>
          <internalNodes>
            0 -1 41 -6.5239815739914775e-05</internalNodes>
          <leafValues>
            -8.3218955993652344e-01 2.6769825816154480e-01</leafValues></_>
        <_>
          <internalNodes>
            0 -1 38 -3.3293559681624174e-04</internalNodes>
          <leafValues>
            2.1502038836479187e-01 -8.7148481607437134e-01</leafValues></_>
        <_>
          <internalNodes>
            0 -1 20 -2.9869837686419487e-02</internalNodes>
          <leafValues>
            5.1233530044555664e-01 -3.9655920863151550e-01</leafValues></_>
        <_>
          <internalNodes>
            0 -1 31 5.8565492508932948e-04</internalNodes>
          <leafValues>
            -7.0968282222747803e-01 2.5224322080612183e-01</leafValues></_>
        <_>
          <internalNodes>
            0 -1 36 -3.1494849827140570e-04</internalNodes>
          <leafValues>
            -6.8923419713973999e-01 2.4617049098014832e-01</leafValues></_>
        <_>
          <internalNodes>
            0 -1 44 8.8228809181600809e-04</internalNodes>
          <leafValues>
            -6.7913633584976196e-01 2.2524391114711761e-01</leafValues></_>
        <_>
          <internalNodes>
            0 -1 4 8.5748340934514999e-03</internalNodes>
          <leafValues>
            -3.3039221167564392e-01 5.6814604997634888e-01</leafValues></_></weakClassifiers></_></stages>
  <features>
    <_>
      <rects>
        <_>
          0 6 18 9 -1.</_>
        <_>
          6 6 6 9 3.</_></rects>
      <tilted>0</tilted></_>
    <_>
      <rects>
        <_>
          0 6 18 10 -1.</_>
        <_>
          6 6 6 10 3.</_></rects>
      <tilted>0</tilted></_>
    <_>
      <rects>
        <_>
          1 12 15 1 -1.</_>
        <_>
          6 12 5 1 3.</_></rects>
      <tilted>0</tilted></_>
    <_>
      <rects>
        <_>
          3 10 6 2 -1.</_>
        <_>
          5 10 2 2 3.</_></rects>
      <tilted>0</tilted></_>
    <_>
      <rects>
        <_>
          4 8 3 4 -1.</_>
        <_>
          5 8 1 4 3.</_></rects>
      <tilted>0</tilted></_>
    <_>
      <rects>
        <_>
          4 11 6 3 -1.</_>
        <_>
          6 11 2 3 3.</_></rects>
      <tilted>0</tilted></_>
    <_>
      <rects>
        <_>
          4 12 9 3 -1.</_>
        <_>
          7 12 3 3 3.</_></rects>
      <tilted>0</tilted></_>
    <_>
      <rects>
        <_>
          5 3 2 15 -1.</_>
        <_>
          5 8 2 5 3.</_></rects>
      <tilted>0</tilted></_>
    <_>
      <rects>
        <_>
          5 6 4 6 -1.</_>
        <_>
          5 6 2 3 2.</_>
        <_>
          7 9 2 3 2.</_></rects>
      <tilted>0</tilted></_>
    <_>
      <rects>
        <_>
          5 7 2 4 -1.</_>
        <_>
          5 7 1 2 2.</_>
        <_>
          6 9 1 2 2.</_></rects>
      <tilted>0</tilted></_>
    <_>
      <rects>
        <_>
          5 8 1 6 -1.</_>
        <_>
          5 10 1 2 3.</_></rects>
      <tilted>0</tilted></_>
    <_>
      <rects>
        <_>
          5 12 6 4 -1.</_>
        <_>
          5 14 6 2 2.</_></rects>
      <tilted>0</tilted></_>
    <_>
      <rects>
        <_>
          5 12 8 6 -1.</_>
        <_>
          5 15 8 3 2.</_></rects>
      <tilted>0</tilted></_>
    <_>
      <rects>
        <_>
          6 4 6 4 -1.</_>
        <_>
          6 6 6 2 2.</_></rects>
      <tilted>0</tilted></_>
    <_>
      <rects>
        <_>
          6 7 6 8 -1.</_>
        <_>
          8 7 2 8 3.</_></rects>
      <tilted>0</tilted></_>
    <_>
      <rects>
        <_>
          6 9 2 6 -1.</_>
        <_>
          6 9 1 3 2.</_>
        <_>
          7 12 1 3 2.</_></rects>
      <tilted>0</tilted></_>
    <_>
      <rects>
        <_>
          6 9 4 5 -1.</_>
        <_>
          8 9 2 5 2.</_></rects>
      <tilted>0</tilted></_>
    <_>
      <rects>
        <_>
          6 13 3 2 -1.</_>
        <_>
          7 13 1 2 3.</_></rects>
      <tilted>0</tilted></_>
    <_>
      <rects>
        <_>
          6 13 2 2 -1.</_>
        <_>
          6 14 2 1 2.</_></rects>
      <tilted>0</tilted></_>
    <_>
      <rects>
        <_>
          6 13 6 3 -1.</_>
        <_>
          6 14 6 1 3.</_></rects>
      <tilted>0</tilted></_>
    <_>
      <rects>
        <_>
          6 14 6 4 -1.</_>
        <_>
          6 16 6 2 2.</_></rects>
      <tilted>0</tilted></_>
    <_>
      <rects>
        <_>
          7 4 3 6 -1.</_>
        <_>
          7 6 3 2 3.</_></rects>
      <tilted>0</tilted></_>
    <_>
      <rects>
        <_>
          7 4 5 4 -1.</_>
        <_>
          7 6 5 2 2.</_></rects>
      <tilted>0</tilted></_>
    <_>
      <rects>
        <_>
          7 4 5 6 -1.</_>
        <_>
          7 6 5 2 3.</_></rects>
      <tilted>0</tilted></_>
    <_>
      <rects>
        <_>
          7 9 3 9 -1.</_>
        <_>
          7 12 3 3 3.</_></rects>
      <tilted>0</tilted></_>
    <_>
      <rects>
        <_>
          7 13 6 1 -1.</_>
        <_>
          9 13 2 1 3.</_></rects>
      <tilted>0</tilted></_>
    <_>
      <rects>
        <_>
          7 14 3 1 -1.</_>
        <_>
          8 14 1 1 3.</_></rects>
      <tilted>0</tilted></_>
    <_>
      <rects>
        <_>
          8 7 6 7 -1.</_>
        <_>
          10 7 2 7 3.</_></rects>
      <tilted>0</tilted></_>
    <_>
      <rects>
        <_>
          8 9 6 3 -1.</_>
        <_>
          10 9 2 3 3.</_></rects>
      <tilted>0</tilted></_>
    <_>
      <rects>
        <_>
          8 13 1 2 -1.</_>
        <_>
          8 14 1 1 2.</_></rects>
      <tilted>0</tilted></_>
    <_>
      <rects>
        <_>
          9 9 3 5 -1.</_>
        <_>
          10 9 1 5 3.</_></rects>
      <tilted>0</tilted></_>
    <_>
      <rects>
        <_>
          9 11 3 3 -1.</_>
        <_>
          10 11 1 3 3.</_></rects>
      <tilted>0</tilted></_>
    <_>
      <rects>
        <_>
          9 13 2 1 -1.</_>
        <_>
          10 13 1 1 2.</_></rects>
      <tilted>0</tilted></_>
    <_>
      <rects>
        <_>
          9 13 1 2 -1.</_>
        <_>
          9 14 1 1 2.</_></rects>
      <tilted>0</tilted></_>
    <_>
      <rects>
        <_>
          9 13 2 2 -1.</_>
        <_>
          10 13 1 2 2.</_></rects>
      <tilted>0</tilted></_>
    <_>
      <rects>
        <_>
          10 5 2 6 -1.</_>
        <_>
          10 7 2 2 3.</_></rects>
      <tilted>0</tilted></_>
    <_>
      <rects>
        <_>
          10 6 2 3 -1.</_>
        <_>
          10 7 2 1 3.</_></rects>
      <tilted>0</tilted></_>
    <_>
      <rects>
        <_>
          10 7 1 2 -1.</_>
        <_>
          10 8 1 1 2.</_></rects>
      <tilted>0</tilted></_>
    <_>
      <rects>
        <_>
          10 7 2 2 -1.</_>
        <_>
          11 7 1 2 2.</_></rects>
      <tilted>0</tilted></_>
    <_>
      <rects>
        <_>
          10 7 4 7 -1.</_>
        <_>
          12 7 2 7 2.</_></rects>
      <tilted>0</tilted></_>
    <_>
      <rects>
        <_>
          10 8 2 1 -1.</_>
        <_>
          11 8 1 1 2.</_></rects>
      <tilted>0</tilted></_>
    <_>
      <rects>
        <_>
          10 8 3 1 -1.</_>
        <_>
          11 8 1 1 3.</_></rects>
      <tilted>0</tilted></_>
    <_>
      <rects>
        <_>
          10 9 3 3 -1.</_>
        <_>
          11 9 1 3 3.</_></rects>
      <tilted>0</tilted></_>
    <_>
      <rects>
        <_>
          10 10 1 6 -1.</_>
        <_>
          10 12 1 2 3.</_></rects>
      <tilted>0</tilted></_>
    <_>
      <rects>
        <_>
          10 10 3 3 -1.</_>
        <_>
          11 10 1 3 3.</_></rects>
      <tilted>0</tilted></_>
    <_>
      <rects>
        <_>
          11 7 1 2 -1.</_>
        <_>
          11 8 1 1 2.</_></rects>
      <tilted>0</tilted></_>
    <_>
      <rects>
        <_>
          12 9 2 4 -1.</_>
        <_>
          13 9 1 4 2.</_></rects>
      <tilted>0</tilted></_>
    <_>
      <rects>
        <_>
          12 11 2 2 -1.</_>
        <_>
          13 11 1 2 2.</_></rects>
      <tilted>0</tilted></_></features></cascade>
</opencv_storage>
